digraph Tree {
node [shape=box, style="filled, rounded", color="black", fontname=helvetica] ;
edge [fontname=helvetica] ;
0 [label="sepal length (cm) <= 5.45\ngini = 0.67\nsamples = 94\nvalue = [46, 51, 53]\nclass = virginica", fillcolor="#fcfbfe"] ;
1 [label="petal width (cm) <= 0.8\ngini = 0.24\nsamples = 31\nvalue = [39, 4, 2]\nclass = setosa", fillcolor="#e99356"] ;
0 -> 1 [labeldistance=2.5, labelangle=45, headlabel="True"] ;
2 [label="gini = 0.0\nsamples = 27\nvalue = [39, 0, 0]\nclass = setosa", fillcolor="#e58139"] ;
1 -> 2 ;
3 [label="sepal width (cm) <= 2.6\ngini = 0.44\nsamples = 4\nvalue = [0, 4, 2]\nclass = versicolor", fillcolor="#9cf2c0"] ;
1 -> 3 ;
4 [label="sepal width (cm) <= 2.4\ngini = 0.44\nsamples = 2\nvalue = [0, 1, 2]\nclass = virginica", fillcolor="#c09cf2"] ;
3 -> 4 ;
5 [label="gini = 0.0\nsamples = 1\nvalue = [0, 1, 0]\nclass = versicolor", fillcolor="#39e581"] ;
4 -> 5 ;
6 [label="gini = 0.0\nsamples = 1\nvalue = [0, 0, 2]\nclass = virginica", fillcolor="#8139e5"] ;
4 -> 6 ;
7 [label="gini = 0.0\nsamples = 2\nvalue = [0, 3, 0]\nclass = versicolor", fillcolor="#39e581"] ;
3 -> 7 ;
8 [label="petal length (cm) <= 4.75\ngini = 0.56\nsamples = 63\nvalue = [7, 47, 51]\nclass = virginica", fillcolor="#f6f1fd"] ;
0 -> 8 [labeldistance=2.5, labelangle=-45, headlabel="False"] ;
9 [label="petal width (cm) <= 0.7\ngini = 0.24\nsamples = 28\nvalue = [7, 42, 0]\nclass = versicolor", fillcolor="#5ae996"] ;
8 -> 9 ;
10 [label="gini = 0.0\nsamples = 4\nvalue = [7, 0, 0]\nclass = setosa", fillcolor="#e58139"] ;
9 -> 10 ;
11 [label="gini = 0.0\nsamples = 24\nvalue = [0, 42, 0]\nclass = versicolor", fillcolor="#39e581"] ;
9 -> 11 ;
12 [label="sepal length (cm) <= 6.75\ngini = 0.16\nsamples = 35\nvalue = [0, 5, 51]\nclass = virginica", fillcolor="#8d4ce8"] ;
8 -> 12 ;
13 [label="sepal width (cm) <= 2.9\ngini = 0.24\nsamples = 23\nvalue = [0, 5, 30]\nclass = virginica", fillcolor="#965ae9"] ;
12 -> 13 ;
14 [label="sepal width (cm) <= 2.55\ngini = 0.12\nsamples = 11\nvalue = [0, 1, 15]\nclass = virginica", fillcolor="#8946e7"] ;
13 -> 14 ;
15 [label="petal width (cm) <= 1.7\ngini = 0.44\nsamples = 3\nvalue = [0, 1, 2]\nclass = virginica", fillcolor="#c09cf2"] ;
14 -> 15 ;
16 [label="gini = 0.0\nsamples = 1\nvalue = [0, 1, 0]\nclass = versicolor", fillcolor="#39e581"] ;
15 -> 16 ;
17 [label="gini = 0.0\nsamples = 2\nvalue = [0, 0, 2]\nclass = virginica", fillcolor="#8139e5"] ;
15 -> 17 ;
18 [label="gini = 0.0\nsamples = 8\nvalue = [0, 0, 13]\nclass = virginica", fillcolor="#8139e5"] ;
14 -> 18 ;
19 [label="petal length (cm) <= 5.05\ngini = 0.33\nsamples = 12\nvalue = [0, 4, 15]\nclass = virginica", fillcolor="#a36eec"] ;
13 -> 19 ;
20 [label="petal width (cm) <= 1.75\ngini = 0.32\nsamples = 3\nvalue = [0, 4, 1]\nclass = versicolor", fillcolor="#6aeca0"] ;
19 -> 20 ;
21 [label="gini = 0.0\nsamples = 1\nvalue = [0, 2, 0]\nclass = versicolor", fillcolor="#39e581"] ;
20 -> 21 ;
22 [label="sepal length (cm) <= 6.0\ngini = 0.44\nsamples = 2\nvalue = [0, 2, 1]\nclass = versicolor", fillcolor="#9cf2c0"] ;
20 -> 22 ;
23 [label="gini = 0.0\nsamples = 1\nvalue = [0, 2, 0]\nclass = versicolor", fillcolor="#39e581"] ;
22 -> 23 ;
24 [label="gini = 0.0\nsamples = 1\nvalue = [0, 0, 1]\nclass = virginica", fillcolor="#8139e5"] ;
22 -> 24 ;
25 [label="gini = 0.0\nsamples = 9\nvalue = [0, 0, 14]\nclass = virginica", fillcolor="#8139e5"] ;
19 -> 25 ;
26 [label="gini = 0.0\nsamples = 12\nvalue = [0, 0, 21]\nclass = virginica", fillcolor="#8139e5"] ;
12 -> 26 ;
}